FANN_FLO_2.1
num_layers=3
learning_rate=0.700000
connection_rate=1.000000
network_type=0
learning_momentum=0.000000
training_algorithm=2
train_error_function=1
train_stop_function=0
cascade_output_change_fraction=0.010000
quickprop_decay=-0.000100
quickprop_mu=1.750000
rprop_increase_factor=1.200000
rprop_decrease_factor=0.500000
rprop_delta_min=0.000000
rprop_delta_max=50.000000
rprop_delta_zero=0.100000
cascade_output_stagnation_epochs=12
cascade_candidate_change_fraction=0.010000
cascade_candidate_stagnation_epochs=12
cascade_max_out_epochs=150
cascade_min_out_epochs=50
cascade_max_cand_epochs=150
cascade_min_cand_epochs=50
cascade_num_candidate_groups=2
bit_fail_limit=3.49999994039535520000e-001
cascade_candidate_limit=1.00000000000000000000e+003
cascade_weight_multiplier=4.00000005960464480000e-001
cascade_activation_functions_count=10
cascade_activation_functions=3 5 7 8 10 11 14 15 16 17 
cascade_activation_steepnesses_count=4
cascade_activation_steepnesses=2.50000000000000000000e-001 5.00000000000000000000e-001 7.50000000000000000000e-001 1.00000000000000000000e+000 
layer_sizes=6 36 8 
scale_included=0
neurons (num_inputs, activation_function, activation_steepness)=(0, 0, 0.00000000000000000000e+000) (0, 0, 0.00000000000000000000e+000) (0, 0, 0.00000000000000000000e+000) (0, 0, 0.00000000000000000000e+000) (0, 0, 0.00000000000000000000e+000) (0, 0, 0.00000000000000000000e+000) (6, 5, 9.99999977648258210000e-003) (6, 5, 9.99999977648258210000e-003) (6, 5, 9.99999977648258210000e-003) (6, 5, 9.99999977648258210000e-003) (6, 5, 9.99999977648258210000e-003) (6, 5, 9.99999977648258210000e-003) (6, 5, 9.99999977648258210000e-003) (6, 5, 9.99999977648258210000e-003) (6, 5, 9.99999977648258210000e-003) (6, 5, 9.99999977648258210000e-003) (6, 5, 9.99999977648258210000e-003) (6, 5, 9.99999977648258210000e-003) (6, 5, 9.99999977648258210000e-003) (6, 5, 9.99999977648258210000e-003) (6, 5, 9.99999977648258210000e-003) (6, 5, 9.99999977648258210000e-003) (6, 5, 9.99999977648258210000e-003) (6, 5, 9.99999977648258210000e-003) (6, 5, 9.99999977648258210000e-003) (6, 5, 9.99999977648258210000e-003) (6, 5, 9.99999977648258210000e-003) (6, 5, 9.99999977648258210000e-003) (6, 5, 9.99999977648258210000e-003) (6, 5, 9.99999977648258210000e-003) (6, 5, 9.99999977648258210000e-003) (6, 5, 9.99999977648258210000e-003) (6, 5, 9.99999977648258210000e-003) (6, 5, 9.99999977648258210000e-003) (6, 5, 9.99999977648258210000e-003) (6, 5, 9.99999977648258210000e-003) (6, 5, 9.99999977648258210000e-003) (6, 5, 9.99999977648258210000e-003) (6, 5, 9.99999977648258210000e-003) (6, 5, 9.99999977648258210000e-003) (6, 5, 9.99999977648258210000e-003) (0, 0, 0.00000000000000000000e+000) (36, 5, 9.99999977648258210000e-003) (36, 5, 9.99999977648258210000e-003) (36, 5, 9.99999977648258210000e-003) (36, 5, 9.99999977648258210000e-003) (36, 5, 9.99999977648258210000e-003) (36, 5, 9.99999977648258210000e-003) (36, 5, 9.99999977648258210000e-003) (0, 0, 0.00000000000000000000e+000) 
connections (connected_to_neuron, weight)=(0, 1.49988977050781250000e+003) (1, 1.50000000000000000000e+003) (2, 1.49977087402343750000e+003) (3, 1.50000000000000000000e+003) (4, 1.49977087402343750000e+003) (5, 1.50000000000000000000e+003) (0, 1.49988977050781250000e+003) (1, 1.50000000000000000000e+003) (2, 1.49976269531250000000e+003) (3, 1.50000000000000000000e+003) (4, 1.49976269531250000000e+003) (5, 1.50000000000000000000e+003) (0, -7.10516631603240970000e-001) (1, 2.43648281097412110000e+001) (2, -4.08331006765365600000e-001) (3, -1.50000000000000000000e+003) (4, -3.82867753505706790000e-001) (5, 9.55052947998046870000e+000) (0, 2.51464700698852540000e+000) (1, -5.78663146972656250000e+002) (2, 2.97762329101562500000e+002) (3, -1.50000000000000000000e+003) (4, 2.97762329101562500000e+002) (5, -1.17914342880249020000e+001) (0, 4.52648591995239260000e+000) (1, 1.49655480957031250000e+003) (2, -2.32026367187500000000e+001) (3, -1.50000000000000000000e+003) (4, -2.31730384826660160000e+001) (5, -1.92414581298828120000e+002) (0, 2.47762894630432130000e+000) (1, -5.13530540466308590000e+001) (2, 8.04777526855468750000e+000) (3, -1.50000000000000000000e+003) (4, 8.16289806365966800000e+000) (5, -1.51047573089599610000e+001) (0, 9.08678233623504640000e-001) (1, 1.49999975585937500000e+003) (2, -1.37940383911132810000e+002) (3, 1.50000000000000000000e+003) (4, -1.37900192260742190000e+002) (5, -3.51401662826538090000e+000) (0, -1.24564242362976070000e+000) (1, 4.93530426025390620000e+002) (2, -8.73350830078125000000e+001) (3, 1.50000000000000000000e+003) (4, -8.74954986572265630000e+001) (5, 1.84622097015380860000e+001) (0, 5.80551087856292720000e-001) (1, -1.42310562133789060000e+001) (2, 4.58072280883789060000e+000) (3, 1.50000000000000000000e+003) (4, 4.47772264480590820000e+000) (5, 1.91888555884361270000e-001) (0, 1.49988977050781250000e+003) (1, 1.50000000000000000000e+003) (2, 1.49977136230468750000e+003) (3, 1.50000000000000000000e+003) (4, 1.49977136230468750000e+003) (5, 1.50000000000000000000e+003) (0, 1.63564717769622800000e+000) (1, 1.50000000000000000000e+003) (2, 1.49958459472656250000e+003) (3, 1.50000000000000000000e+003) (4, 1.49958459472656250000e+003) (5, -1.34484497070312500000e+002) (0, 1.49988952636718750000e+003) (1, 1.50000000000000000000e+003) (2, 1.49977001953125000000e+003) (3, 1.50000000000000000000e+003) (4, 1.49977001953125000000e+003) (5, 1.50000000000000000000e+003) (0, 1.51870787143707280000e+000) (1, -4.19019412994384770000e+000) (2, 9.77145314216613770000e-001) (3, -1.50000000000000000000e+003) (4, 9.89639282226562500000e-001) (5, -4.86789822578430180000e-001) (0, -3.70601058006286620000e-001) (1, 1.28910417556762700000e+001) (2, -1.27552151679992680000e+000) (3, -1.50000000000000000000e+003) (4, -1.29514575004577640000e+000) (5, -1.54850053787231450000e+000) (0, 3.83237838745117190000e-001) (1, 1.95921707153320310000e+002) (2, 1.07834875488281250000e+003) (3, 1.50000000000000000000e+003) (4, 1.07834875488281250000e+003) (5, -3.91913270950317380000e+000) (0, -1.23709261417388920000e+000) (1, 7.74094867706298830000e+000) (2, 1.33530464172363280000e+001) (3, 1.50000000000000000000e+003) (4, 1.32601928710937500000e+001) (5, 8.64673767089843750000e+001) (0, 1.49988952636718750000e+003) (1, 1.50000000000000000000e+003) (2, 1.49976342773437500000e+003) (3, 1.50000000000000000000e+003) (4, 1.49976342773437500000e+003) (5, 1.50000000000000000000e+003) (0, -5.03381788730621340000e-001) (1, 1.26915075683593750000e+003) (2, 1.49952478027343750000e+003) (3, 1.50000000000000000000e+003) (4, 1.49952478027343750000e+003) (5, -1.12323637008666990000e+001) (0, -7.63351142406463620000e-001) (1, 4.95618774414062500000e+002) (2, -7.11139082908630370000e-001) (3, 1.50000000000000000000e+003) (4, -7.87709534168243410000e-001) (5, 8.54229507446289060000e+001) (0, 1.64400243759155270000e+000) (1, -4.44146680831909180000e+000) (2, 9.95322525501251220000e-001) (3, -1.50000000000000000000e+003) (4, 9.28934752941131590000e-001) (5, -5.11422395706176760000e-001) (0, -6.55733108520507810000e-001) (1, 5.25416517257690430000e+000) (2, 1.27207696437835690000e+000) (3, -1.50000000000000000000e+003) (4, 1.22179281711578370000e+000) (5, 4.92789316177368160000e+000) (0, 3.20208191871643070000e+000) (1, 7.14000473022460940000e+001) (2, -5.82319831848144530000e+000) (3, 1.50000000000000000000e+003) (4, -5.91083335876464840000e+000) (5, 6.34750289916992190000e+001) (0, 1.49988977050781250000e+003) (1, 1.50000000000000000000e+003) (2, 1.49976245117187500000e+003) (3, 1.50000000000000000000e+003) (4, 1.49976245117187500000e+003) (5, 1.50000000000000000000e+003) (0, -4.49060857295989990000e-001) (1, 1.24377565383911130000e+001) (2, 2.50919640064239500000e-001) (3, -1.50000000000000000000e+003) (4, 3.13453912734985350000e-001) (5, 1.08928375244140630000e+001) (0, 3.24442315101623540000e+000) (1, 7.83364009857177730000e+000) (2, 1.46736877441406250000e+003) (3, 1.50000000000000000000e+003) (4, 1.46736877441406250000e+003) (5, -7.42757797241210940000e+001) (0, 3.65130925178527830000e+000) (1, 1.50000000000000000000e+003) (2, 2.66596374511718750000e+001) (3, 1.50000000000000000000e+003) (4, 2.66596374511718750000e+001) (5, 7.03981246948242190000e+001) (0, -1.10192835330963130000e+000) (1, 6.58938065171241760000e-002) (2, 1.29330940246582030000e+001) (3, 3.21784210205078120000e+001) (4, 1.28448905944824220000e+001) (5, 1.70106639862060550000e+001) (0, 3.33214759826660160000e+000) (1, 1.43107641601562500000e+003) (2, 7.21887359619140630000e+001) (3, 1.50000000000000000000e+003) (4, 7.21887359619140630000e+001) (5, -1.46304153442382810000e+002) (0, -1.09932744503021240000e+000) (1, -5.97168207168579100000e+000) (2, 1.53008613586425780000e+001) (3, 1.50000000000000000000e+003) (4, 1.53610954284667970000e+001) (5, 9.21617031097412110000e+000) (0, 1.49988977050781250000e+003) (1, 1.50000000000000000000e+003) (2, 1.49976000976562500000e+003) (3, 1.50000000000000000000e+003) (4, 1.49976000976562500000e+003) (5, 1.50000000000000000000e+003) (0, -5.40423512458801270000e-001) (1, -9.66763992309570310000e+001) (2, 1.18767715454101560000e+002) (3, -1.50000000000000000000e+003) (4, 1.18812690734863280000e+002) (5, 6.69866027832031250000e+001) (0, 1.76538372039794920000e+000) (1, 1.20436012268066410000e+002) (2, 1.09511880874633790000e+001) (3, 1.50000000000000000000e+003) (4, 1.10379991531372070000e+001) (5, 2.40319118499755860000e+001) (0, 2.70312952995300290000e+000) (1, -2.02013519287109370000e+002) (2, 1.22870361328125000000e+002) (3, -1.50000000000000000000e+003) (4, 1.22870361328125000000e+002) (5, -7.26045150756835940000e+001) (0, 4.64922866821289060000e+001) (1, 1.48906555175781250000e+003) (2, -4.79358673095703120000e+002) (3, -1.50000000000000000000e+003) (4, -4.79358673095703120000e+002) (5, -1.48841943359375000000e+003) (0, -6.09512150287628170000e-001) (1, 2.22503528594970700000e+001) (2, -1.88786625862121580000e+000) (3, -1.50000000000000000000e+003) (4, -1.85903203487396240000e+000) (5, 1.57353019714355470000e+001) (6, 3.77586460113525390000e+000) (7, 2.62611746788024900000e+000) (8, 1.89778256416320800000e+000) (9, -1.56714048385620120000e+001) (10, 5.69738245010375980000e+000) (11, -1.12945556640625000000e+000) (12, -1.98237838745117190000e+001) (13, -1.57433204650878910000e+001) (14, -1.24952125549316410000e+001) (15, 5.18940925598144530000e+000) (16, 1.80756626129150390000e+001) (17, 5.16568946838378910000e+000) (18, 1.54375106811523440000e+002) (19, 1.06247482299804690000e+001) (20, -4.90340042114257810000e+001) (21, -7.36039581298828130000e+001) (22, 2.11990094184875490000e+000) (23, 8.53236541748046870000e+001) (24, 8.12325763702392580000e+000) (25, -1.91045440673828120000e+002) (26, -2.27652664184570310000e+001) (27, 8.70317687988281250000e+001) (28, 3.80227398872375490000e+000) (29, 1.80039215087890630000e+001) (30, -3.51513981819152830000e+000) (31, -6.24430561065673830000e+000) (32, -4.10929374694824220000e+001) (33, 9.78606224060058590000e+000) (34, -2.52249450683593750000e+001) (35, 3.85076761245727540000e+000) (36, -1.22677398681640620000e+002) (37, 1.19436712265014650000e+001) (38, -4.37734642028808590000e+001) (39, -1.40172171592712400000e+000) (40, 2.03291091918945310000e+002) (41, 6.93361358642578120000e+001) (6, 8.23557758331298830000e+000) (7, 8.41654586791992190000e+000) (8, -1.49953344726562500000e+003) (9, -3.95547223091125490000e+000) (10, -2.74280761718750000000e+002) (11, -2.13524703979492190000e+001) (12, 1.62304946899414060000e+002) (13, 3.42835815429687500000e+002) (14, 2.30442905426025390000e+001) (15, 8.21691322326660160000e+000) (16, 4.46901321411132810000e+001) (17, 8.26471042633056640000e+000) (18, -1.50000000000000000000e+003) (19, -1.50000000000000000000e+003) (20, 1.63951015472412110000e+001) (21, -2.38578353881835940000e+002) (22, 8.36037063598632810000e+000) (23, 6.12233886718750000000e+001) (24, 4.96385622024536130000e+000) (25, -1.50000000000000000000e+003) (26, -1.50000000000000000000e+003) (27, 2.37470016479492190000e+001) (28, 8.35567283630371090000e+000) (29, -1.49489660644531250000e+003) (30, 2.31548461914062500000e+001) (31, 1.06936798095703130000e+001) (32, 2.11742538452148440000e+002) (33, 2.72673095703125000000e+002) (34, 2.14042739868164060000e+001) (35, 8.38226604461669920000e+000) (36, -1.78647933959960940000e+002) (37, 8.46144775390625000000e+002) (38, -2.13630409240722660000e+001) (39, -9.95269966125488280000e+000) (40, -1.06523742675781250000e+003) (41, -1.24452562332153320000e+001) (6, 4.98716592788696290000e+000) (7, 5.33840990066528320000e+000) (8, 1.47644271850585940000e+002) (9, -5.59284362792968750000e+001) (10, 8.79677486419677730000e+000) (11, 5.47280120849609380000e+000) (12, -1.07930450439453120000e+002) (13, 8.66193199157714840000e+000) (14, 1.30928678512573240000e+001) (15, 5.11739063262939450000e+000) (16, -4.60250091552734380000e+001) (17, 5.02050495147705080000e+000) (18, 1.63623535156250000000e+002) (19, 1.02765151977539060000e+002) (20, 3.60409474372863770000e+000) (21, -3.94807647705078120000e+002) (22, 5.35250997543334960000e+000) (23, 3.53695556640625000000e+002) (24, 5.29790461063385010000e-001) (25, 7.14635086059570310000e+001) (26, 2.54490013122558590000e+001) (27, 1.35355701446533200000e+001) (28, 4.92511844635009770000e+000) (29, -2.49057830810546870000e+002) (30, -7.62034301757812500000e+001) (31, 6.78449964523315430000e+000) (32, -1.13718750000000000000e+003) (33, -2.55856079101562500000e+002) (34, 8.93656635284423830000e+000) (35, 5.08435916900634770000e+000) (36, 4.27803436279296870000e+002) (37, -3.94013732910156250000e+002) (38, -2.95865661621093750000e+002) (39, 4.39571418762207030000e+001) (40, -5.60508666992187500000e+002) (41, 2.37560248374938960000e+000) (6, 6.13392543792724610000e+000) (7, 6.07441473007202150000e+000) (8, 1.50000000000000000000e+003) (9, 2.53181324005126950000e+001) (10, 1.94782180786132810000e+002) (11, 1.18829368591308590000e+002) (12, 4.73954277038574220000e+001) (13, -5.76512512207031250000e+002) (14, -2.14537506103515620000e+002) (15, 6.24431562423706050000e+000) (16, -5.17419755458831790000e-001) (17, 6.16508150100708010000e+000) (18, 1.50000000000000000000e+003) (19, 1.50000000000000000000e+003) (20, 4.48143434524536130000e+000) (21, -1.13677665710449220000e+002) (22, 6.13959789276123050000e+000) (23, -4.69854240417480470000e+001) (24, -3.51674056053161620000e+000) (25, 1.50000000000000000000e+003) (26, 1.50000000000000000000e+003) (27, -2.38419692993164060000e+002) (28, 6.06138944625854490000e+000) (29, 1.50000000000000000000e+003) (30, 5.91041898727416990000e+000) (31, 4.55023956298828120000e+000) (32, 9.56963958740234380000e+001) (33, 2.16495132446289060000e+001) (34, -4.93692352294921870000e+002) (35, 6.11299800872802730000e+000) (36, 1.21806999206542970000e+002) (37, -1.00112493896484370000e+003) (38, 9.85298233032226560000e+001) (39, 1.33839101791381840000e+001) (40, 1.49988500976562500000e+003) (41, 5.44711971282958980000e+000) (6, -1.05548400878906250000e+001) (7, -1.04513015747070310000e+001) (8, 1.19145469665527340000e+002) (9, 1.65223293304443360000e+001) (10, -1.53829622268676760000e+001) (11, 4.10550975799560550000e+000) (12, 5.16797218322753910000e+001) (13, 1.31911331176757810000e+002) (14, -5.53579759597778320000e+000) (15, -1.06922760009765620000e+001) (16, 9.90457725524902340000e+000) (17, -1.05653953552246090000e+001) (18, 3.49973907470703130000e+001) (19, 7.20621185302734370000e+001) (20, 6.34064140319824220000e+001) (21, -1.95536697387695310000e+002) (22, -1.04828357696533200000e+001) (23, -4.43714141845703130000e+001) (24, -3.44841651916503910000e+001) (25, -5.22779884338378910000e+001) (26, 3.04592590332031250000e+001) (27, 1.39562759399414060000e+002) (28, -1.04831647872924800000e+001) (29, -7.87388153076171880000e+001) (30, 3.33163571357727050000e+000) (31, 2.72439250946044920000e+001) (32, 1.04759254455566410000e+002) (33, 8.11568617820739750000e-001) (34, 1.69414154052734380000e+002) (35, -1.05476408004760740000e+001) (36, 1.32342041015625000000e+002) (37, 1.12559188842773440000e+002) (38, 2.87074108123779300000e+001) (39, 3.95922636985778810000e+000) (40, -1.69264068603515620000e+002) (41, -4.56191749572753910000e+001) (6, 7.35205507278442380000e+000) (7, 7.44545269012451170000e+000) (8, -1.22101245117187500000e+003) (9, -1.31445569992065430000e+001) (10, -4.03457374572753910000e+001) (11, -5.41590166091918950000e+000) (12, 1.71792697906494140000e+001) (13, 3.37044250488281250000e+002) (14, 1.14168825149536130000e+001) (15, 7.73146772384643550000e+000) (16, 7.40257215499877930000e+000) (17, 7.39919567108154300000e+000) (18, -1.50000000000000000000e+003) (19, -1.49988940429687500000e+003) (20, 3.25141072273254390000e+000) (21, 6.70276489257812500000e+002) (22, 7.35830593109130860000e+000) (23, 8.54510726928710940000e+001) (24, 1.53813390731811520000e+001) (25, -1.50000000000000000000e+003) (26, -1.34663208007812500000e+003) (27, 2.88380828857421870000e+002) (28, 7.51063823699951170000e+000) (29, -1.32147839355468750000e+003) (30, 4.38399887084960940000e+000) (31, 5.39109086990356450000e+000) (32, -1.77250732421875000000e+002) (33, -3.23529266357421870000e+002) (34, 1.08396005630493160000e+001) (35, 7.44904136657714840000e+000) (36, 1.23726264953613280000e+002) (37, 5.86882812500000000000e+002) (38, -1.94142013549804690000e+002) (39, -2.04772400856018070000e+000) (40, -8.26877868652343750000e+002) (41, 2.28163833618164060000e+001) (6, 3.53924536705017090000e+000) (7, 3.43332505226135250000e+000) (8, -2.44839324951171880000e+001) (9, 1.01922254562377930000e+001) (10, -4.25054311752319340000e+000) (11, -2.51410913467407230000e+000) (12, 3.20060920715332030000e+001) (13, -3.70568389892578130000e+001) (14, -2.27514815330505370000e+000) (15, 4.17172431945800780000e+000) (16, 3.61804466247558590000e+001) (17, 4.22245788574218750000e+000) (18, -1.09085662841796870000e+002) (19, -1.50489868164062500000e+002) (20, 2.71643304824829100000e+000) (21, 4.12665527343750000000e+002) (22, 5.34587478637695310000e+000) (23, -2.99032745361328120000e+002) (24, 9.00329303741455080000e+000) (25, 3.21480026245117190000e+001) (26, 2.97439804077148440000e+001) (27, -6.19612274169921880000e+001) (28, 3.58309721946716310000e+000) (29, 1.37189346313476560000e+002) (30, 9.50306015014648440000e+001) (31, -2.46604010462760930000e-001) (32, 1.11402343750000000000e+003) (33, 2.67548248291015620000e+002) (34, 1.03600654602050780000e+002) (35, 3.55436110496521000000e+000) (36, -4.17880615234375000000e+002) (37, 2.90582153320312500000e+002) (38, 3.02055938720703130000e+002) (39, -5.49063720703125000000e+001) (40, 3.98307983398437500000e+002) (41, 3.34360656738281250000e+001) 
