FANN_FLO_2.1
num_layers=3
learning_rate=0.700000
connection_rate=1.000000
network_type=0
learning_momentum=0.000000
training_algorithm=2
train_error_function=1
train_stop_function=0
cascade_output_change_fraction=0.010000
quickprop_decay=-0.000100
quickprop_mu=1.750000
rprop_increase_factor=1.200000
rprop_decrease_factor=0.500000
rprop_delta_min=0.000000
rprop_delta_max=50.000000
rprop_delta_zero=0.100000
cascade_output_stagnation_epochs=12
cascade_candidate_change_fraction=0.010000
cascade_candidate_stagnation_epochs=12
cascade_max_out_epochs=150
cascade_min_out_epochs=50
cascade_max_cand_epochs=150
cascade_min_cand_epochs=50
cascade_num_candidate_groups=2
bit_fail_limit=3.49999994039535520000e-001
cascade_candidate_limit=1.00000000000000000000e+003
cascade_weight_multiplier=4.00000005960464480000e-001
cascade_activation_functions_count=10
cascade_activation_functions=3 5 7 8 10 11 14 15 16 17 
cascade_activation_steepnesses_count=4
cascade_activation_steepnesses=2.50000000000000000000e-001 5.00000000000000000000e-001 7.50000000000000000000e-001 1.00000000000000000000e+000 
layer_sizes=7 43 8 
scale_included=0
neurons (num_inputs, activation_function, activation_steepness)=(0, 0, 0.00000000000000000000e+000) (0, 0, 0.00000000000000000000e+000) (0, 0, 0.00000000000000000000e+000) (0, 0, 0.00000000000000000000e+000) (0, 0, 0.00000000000000000000e+000) (0, 0, 0.00000000000000000000e+000) (0, 0, 0.00000000000000000000e+000) (7, 5, 9.99999977648258210000e-003) (7, 5, 9.99999977648258210000e-003) (7, 5, 9.99999977648258210000e-003) (7, 5, 9.99999977648258210000e-003) (7, 5, 9.99999977648258210000e-003) (7, 5, 9.99999977648258210000e-003) (7, 5, 9.99999977648258210000e-003) (7, 5, 9.99999977648258210000e-003) (7, 5, 9.99999977648258210000e-003) (7, 5, 9.99999977648258210000e-003) (7, 5, 9.99999977648258210000e-003) (7, 5, 9.99999977648258210000e-003) (7, 5, 9.99999977648258210000e-003) (7, 5, 9.99999977648258210000e-003) (7, 5, 9.99999977648258210000e-003) (7, 5, 9.99999977648258210000e-003) (7, 5, 9.99999977648258210000e-003) (7, 5, 9.99999977648258210000e-003) (7, 5, 9.99999977648258210000e-003) (7, 5, 9.99999977648258210000e-003) (7, 5, 9.99999977648258210000e-003) (7, 5, 9.99999977648258210000e-003) (7, 5, 9.99999977648258210000e-003) (7, 5, 9.99999977648258210000e-003) (7, 5, 9.99999977648258210000e-003) (7, 5, 9.99999977648258210000e-003) (7, 5, 9.99999977648258210000e-003) (7, 5, 9.99999977648258210000e-003) (7, 5, 9.99999977648258210000e-003) (7, 5, 9.99999977648258210000e-003) (7, 5, 9.99999977648258210000e-003) (7, 5, 9.99999977648258210000e-003) (7, 5, 9.99999977648258210000e-003) (7, 5, 9.99999977648258210000e-003) (7, 5, 9.99999977648258210000e-003) (7, 5, 9.99999977648258210000e-003) (7, 5, 9.99999977648258210000e-003) (7, 5, 9.99999977648258210000e-003) (7, 5, 9.99999977648258210000e-003) (7, 5, 9.99999977648258210000e-003) (7, 5, 9.99999977648258210000e-003) (7, 5, 9.99999977648258210000e-003) (0, 0, 0.00000000000000000000e+000) (43, 5, 9.99999977648258210000e-003) (43, 5, 9.99999977648258210000e-003) (43, 5, 9.99999977648258210000e-003) (43, 5, 9.99999977648258210000e-003) (43, 5, 9.99999977648258210000e-003) (43, 5, 9.99999977648258210000e-003) (43, 5, 9.99999977648258210000e-003) (0, 0, 0.00000000000000000000e+000) 
connections (connected_to_neuron, weight)=(0, 4.74238365888595580000e-001) (1, 2.46886396408081050000e+000) (2, -2.23088588714599610000e+001) (3, -9.28110504150390620000e+000) (4, -6.51781988143920900000e+000) (5, 4.32353973388671880000e+000) (6, 2.97033739089965820000e+000) (0, 2.03646397590637210000e+000) (1, -1.91122436523437500000e+000) (2, -2.81240264892578120000e+002) (3, 1.01571029663085940000e+002) (4, 3.82547271728515620000e+002) (5, 4.88482427597045900000e+000) (6, -3.52786293029785160000e+001) (0, -1.31083369255065920000e+000) (1, 5.87782907485961910000e+000) (2, -2.20954685211181640000e+001) (3, 1.69798889160156250000e+001) (4, -1.49145097732543950000e+001) (5, -3.57239818572998050000e+000) (6, 3.88205070495605470000e+001) (0, 2.01211237907409670000e+000) (1, 7.11857378482818600000e-001) (2, -6.99222660064697270000e+000) (3, -3.87130188941955570000e+000) (4, 5.48981189727783200000e-001) (5, 4.86102390289306640000e+000) (6, 3.87671440839767460000e-001) (0, -1.52147746086120610000e+000) (1, 4.53808277845382690000e-001) (2, 2.81414337158203120000e+002) (3, 1.11045890808105470000e+002) (4, -9.56455459594726560000e+001) (5, 1.16105628967285160000e+002) (6, -1.32079406738281250000e+002) (0, 8.89661979675292970000e+000) (1, -2.71902954101562500000e+002) (2, -3.66230735778808590000e+001) (3, -1.71116280555725100000e+000) (4, 2.79483437538146970000e+000) (5, 7.25958633422851560000e+001) (6, 2.43237991333007810000e+002) (0, -1.04494655132293700000e+000) (1, -1.56708264350891110000e+000) (2, 1.91912445068359370000e+002) (3, -4.49637115001678470000e-001) (4, -3.26252471923828120000e+002) (5, 1.14256944656372070000e+001) (6, 7.64258384704589840000e-001) (0, -1.01858043670654300000e+000) (1, 5.16274869441986080000e-001) (2, 5.75409126281738280000e+000) (3, 7.06815719604492190000e+001) (4, -7.52393424510955810000e-001) (5, -2.44567370414733890000e+000) (6, 1.00434265136718750000e+001) (0, 4.52416479587554930000e-001) (1, 3.09973645210266110000e+000) (2, 2.31209526062011720000e+001) (3, 7.67153620719909670000e-001) (4, -3.84916763305664060000e+001) (5, 6.40036153793334960000e+000) (6, 6.11322939395904540000e-001) (0, 8.63102912902832030000e-001) (1, 6.38938128948211670000e-001) (2, -1.05637655258178710000e+001) (3, -1.08317625522613530000e+000) (4, 2.80231227874755860000e+001) (5, -2.17679767608642580000e+001) (6, 7.30877637863159180000e-001) (0, -1.05238413810729980000e+000) (1, 1.29885637760162350000e+000) (2, -1.76522350311279300000e+001) (3, 5.56292304992675780000e+001) (4, 1.06177864074707030000e+001) (5, -3.24676609039306640000e+000) (6, 5.81243181228637700000e+000) (0, 2.00396466255187990000e+000) (1, 5.46788072586059570000e+000) (2, 1.61475601196289060000e+002) (3, -3.19893951416015620000e+002) (4, -2.92037391662597660000e+001) (5, 7.93695755004882810000e+001) (6, -8.84116363525390620000e+000) (0, 6.87198221683502200000e-001) (1, -1.37188208103179930000e+000) (2, 4.19496879577636720000e+001) (3, -2.74832248687744140000e+000) (4, 4.69854640960693360000e+000) (5, 1.55686593055725100000e+000) (6, -2.84590458869934080000e+000) (0, 2.06906151771545410000e+000) (1, 3.79946494102478030000e+000) (2, 5.71789436340332030000e+001) (3, -2.65439414978027340000e+000) (4, -9.70859069824218750000e+001) (5, 1.24726896286010740000e+001) (6, 1.34211492538452150000e+000) (0, -4.81697589159011840000e-001) (1, -7.65036419034004210000e-002) (2, 9.71099472045898440000e+001) (3, 6.71845016479492190000e+001) (4, -6.37319908142089840000e+001) (5, -1.38697540283203120000e+002) (6, 1.09591110229492190000e+002) (0, -1.36204993724823000000e+000) (1, 1.51782548427581790000e+000) (2, 3.09801197052001950000e+000) (3, 2.21327304840087890000e+001) (4, 8.67448997497558590000e+000) (5, -3.41881513595581050000e+000) (6, -1.02788362503051760000e+001) (0, 4.81014102697372440000e-001) (1, 2.66491246223449710000e+000) (2, -1.72497749328613280000e+001) (3, 2.82480955123901370000e+000) (4, 3.09762458801269530000e+001) (5, -2.16333789825439450000e+001) (6, 5.44376373291015630000e+000) (0, -1.07056748867034910000e+000) (1, 7.48215541243553160000e-002) (2, -6.46144790649414060000e+001) (3, 4.99204597473144530000e+001) (4, 1.32467508316040040000e+001) (5, -3.23711919784545900000e+000) (6, 1.41708173751831050000e+001) (0, 2.42520785331726070000e+000) (1, 1.37451353073120120000e+001) (2, 2.16347732543945310000e+001) (3, -5.56971626281738280000e+001) (4, -6.14711608886718750000e+001) (5, 1.46490907669067380000e+001) (6, -3.58437597751617430000e-001) (0, -1.19719052314758300000e+000) (1, 1.34682416915893550000e+000) (2, 8.47067260742187500000e+000) (3, 1.70068149566650390000e+001) (4, -2.17316665649414060000e+001) (5, -5.44484615325927730000e+000) (6, 6.53494873046875000000e+001) (0, -1.02982711791992190000e+000) (1, 2.12298169732093810000e-001) (2, 6.01967048645019530000e+000) (3, 6.37859649658203120000e+001) (4, -3.66033107042312620000e-001) (5, -2.61806178092956540000e+000) (6, 1.59328165054321290000e+001) (0, 2.15469479560852050000e+000) (1, 3.07602739334106450000e+000) (2, 7.42918243408203120000e+001) (3, 1.12615644931793210000e+000) (4, -3.14343906939029690000e-002) (5, 4.51939630508422850000e+000) (6, 1.69585586547851560000e+002) (0, 3.26101005077362060000e-001) (1, 6.65759325027465820000e-001) (2, -4.50883865356445310000e+001) (3, 1.24057912826538090000e+001) (4, 2.16168761253356930000e+000) (5, 2.52527832984924320000e+000) (6, -5.58574724197387700000e+000) (0, 7.13218092918396000000e-001) (1, 8.32018852233886720000e-001) (2, 8.69919872283935550000e+000) (3, -2.88716816902160640000e+000) (4, 2.78438389301300050000e-001) (5, 2.24919724464416500000e+000) (6, -2.70637106895446780000e+000) (0, 2.15172529220581050000e+000) (1, -1.43711977005004880000e+001) (2, 6.62445831298828130000e+000) (3, 9.89920020103454590000e-001) (4, 3.54098510742187500000e+000) (5, 2.48918700218200680000e+000) (6, 2.39626800537109370000e+002) (0, -9.96869564056396480000e-001) (1, 5.37249898910522460000e+000) (2, -2.93859004974365230000e+001) (3, 9.65283020019531250000e+002) (4, -3.97735481262207030000e+001) (5, -1.39975479125976560000e+002) (6, 8.62540664672851560000e+001) (0, -1.36148869991302490000e+000) (1, 1.67167171835899350000e-001) (2, -7.21014320850372310000e-001) (3, 9.27112960815429690000e+001) (4, 3.91865539550781250000e+001) (5, 5.73499011993408200000e+000) (6, -8.95792293548583980000e+000) (0, -1.08939886093139650000e+000) (1, 4.03893041610717770000e+000) (2, 5.63041019439697270000e+000) (3, 7.54259109497070310000e+001) (4, 7.08722531795501710000e-001) (5, -2.46020674705505370000e+000) (6, 9.44611740112304690000e+000) (0, 2.11125564575195310000e+000) (1, 5.58151769638061520000e+000) (2, 2.05747924804687500000e+002) (3, 1.39148845672607420000e+001) (4, 4.62588287353515620000e+002) (5, 3.19410419464111330000e+001) (6, -1.47489395141601560000e+002) (0, -1.09332668781280520000e+000) (1, -3.27329659461975100000e+000) (2, -1.51506252288818360000e+001) (3, 2.94176330566406250000e+001) (4, 1.57062215805053710000e+001) (5, -1.36809253692626950000e+001) (6, 2.16287097930908200000e+001) (0, 1.48627424240112300000e+000) (1, -2.53041336059570310000e+002) (2, 6.20663513183593750000e+002) (3, -3.06409606933593750000e+002) (4, -2.83984470367431640000e+001) (5, 4.98864707946777340000e+001) (6, -9.96270294189453130000e+001) (0, -9.07919526100158690000e-001) (1, 8.94014418125152590000e-001) (2, 8.94062500000000000000e+001) (3, 2.26026668548583980000e+001) (4, 6.14910461425781250000e+002) (5, -8.00866165161132810000e+001) (6, 3.54483299255371090000e+001) (0, 2.89945274591445920000e-001) (1, 2.07540726661682130000e+000) (2, -2.77628746032714840000e+001) (3, 1.33375635147094730000e+001) (4, -1.34165942668914790000e-001) (5, 9.54339694976806640000e+000) (6, -6.55183935165405270000e+000) (0, 8.01752686500549320000e-001) (1, 2.94296801090240480000e-001) (2, 6.81051826477050780000e+000) (3, -2.93617081642150880000e+000) (4, 1.96575200557708740000e+000) (5, 8.75421285629272460000e-001) (6, -3.23303997516632080000e-001) (0, 2.07144188880920410000e+000) (1, 1.76371204853057860000e+000) (2, -1.02990379333496090000e+001) (3, -9.62284207344055180000e-001) (4, 1.27925014495849610000e+001) (5, 2.63095641136169430000e+000) (6, 1.48544299602508540000e+000) (0, 1.84112191200256350000e+000) (1, -1.82438123226165770000e+000) (2, -2.39869670867919920000e+001) (3, 2.71371978759765620000e+002) (4, 2.04466049194335940000e+002) (5, 1.38188766479492190000e+002) (6, -2.94513214111328120000e+002) (0, 1.78945887088775630000e+000) (1, 2.70386838912963870000e+000) (2, 1.45348718261718750000e+003) (3, -1.88777755737304690000e+002) (4, 3.85194366455078120000e+002) (5, 4.87659835815429690000e+000) (6, -1.84953422546386720000e+001) (0, 8.41646254062652590000e-001) (1, 1.74190938472747800000e-001) (2, 7.07750654220581050000e+000) (3, -7.97853469848632810000e+000) (4, 8.02638912200927730000e+000) (5, 9.34124827384948730000e-001) (6, -5.20137166976928710000e+000) (0, 5.30637264251708980000e+000) (1, 5.39839506149291990000e-001) (2, 2.42397247314453120000e+002) (3, -3.83240264892578120000e+002) (4, 1.56407690048217770000e+001) (5, 6.86439437866210940000e+001) (6, -1.09350872039794920000e+000) (0, -1.00794661045074460000e+000) (1, 2.96461343765258790000e+000) (2, 6.66906690597534180000e+000) (3, 7.08806915283203130000e+001) (4, -7.05856466293334960000e+000) (5, -2.49658679962158200000e+000) (6, 1.20682430267333980000e+001) (0, -1.33676028251647950000e+000) (1, 1.75029230117797850000e+000) (2, -2.10480899810791020000e+001) (3, 1.60161190032958980000e+001) (4, -1.53208160400390630000e+001) (5, -3.30490493774414060000e+000) (6, 3.89164466857910160000e+001) (0, 6.38356804847717290000e-001) (1, 3.15671861171722410000e-001) (2, 6.08085155487060550000e+000) (3, 1.47494062781333920000e-001) (4, 2.86346793174743650000e+000) (5, 8.96683573722839360000e-001) (6, -2.48184061050415040000e+000) (7, 1.55713307857513430000e+000) (8, 1.93679654598236080000e+000) (9, -2.80997123718261720000e+001) (10, 2.00726389884948730000e+000) (11, -1.83974731445312500000e+002) (12, 3.79472064971923830000e+000) (13, 1.06882858276367190000e+001) (14, 8.33862662315368650000e-001) (15, 6.17456865310668950000e+000) (16, -1.85614414215087890000e+001) (17, 3.54656386375427250000e+000) (18, 2.47298169136047360000e+000) (19, 1.14621191024780270000e+001) (20, 2.10208797454833980000e+000) (21, 1.42260303497314450000e+001) (22, -8.50036239624023440000e+000) (23, -6.28969848155975340000e-001) (24, -2.50120525360107420000e+001) (25, 3.62731909751892090000e+000) (26, 3.15506839752197270000e+000) (27, 3.38310673832893370000e-002) (28, 2.32528352737426760000e+000) (29, 7.74483261108398440000e+001) (30, -1.39576816558837890000e+000) (31, 3.76006460189819340000e+000) (32, 2.71382808685302730000e+001) (33, -5.06896133422851560000e+001) (34, -3.18731479346752170000e-002) (35, -3.96259760856628420000e+000) (36, -5.75894660949707030000e+001) (37, 7.21417760848999020000e+000) (38, 1.82428989410400390000e+001) (39, -3.00151228904724120000e+000) (40, 3.12506049871444700000e-001) (41, 2.20543742179870610000e+000) (42, -7.34088659286499020000e+000) (43, -4.73674345016479490000e+000) (44, -1.54615843296051030000e+000) (45, 6.29135627746582030000e+001) (46, 2.10733079910278320000e+000) (47, 3.06406283378601070000e+000) (48, -1.43264925479888920000e+000) (49, 8.44691925048828130000e+001) (7, 4.99130105972290040000e+000) (8, 9.54408943653106690000e-001) (9, 6.91542663574218750000e+001) (10, 1.35915791988372800000e+000) (11, 1.13107398986816410000e+002) (12, 1.38412272930145260000e+000) (13, -8.74944400787353520000e+000) (14, -1.16656446456909180000e+001) (15, -4.25616455078125000000e+001) (16, 2.30070755004882810000e+002) (17, 5.87584733963012700000e+000) (18, -1.30275564193725590000e+001) (19, -2.75619983673095700000e+000) (20, 1.64723849296569820000e+000) (21, -2.18752029418945310000e+002) (22, 5.61217975616455080000e+000) (23, 7.47219543457031250000e+001) (24, 1.10059432983398440000e+001) (25, 1.18114733695983890000e+000) (26, 5.27478866577148440000e+001) (27, 4.01440095901489260000e+000) (28, 1.85215926170349120000e+000) (29, -2.49883758544921870000e+002) (30, -2.74618053436279300000e+000) (31, 1.80001246929168700000e+000) (32, -5.22947654724121090000e+001) (33, -1.03500320434570310000e+002) (34, -5.57537746429443360000e+000) (35, -1.95690574645996090000e+001) (36, 1.64567352294921880000e+002) (37, -1.35211744308471680000e+001) (38, -2.56210899353027340000e+001) (39, -1.75809417724609370000e+002) (40, -2.21295046806335450000e+000) (41, 1.57843279838562010000e+000) (42, 2.87199668884277340000e+001) (43, 1.41490449905395510000e+001) (44, -2.76077079772949220000e+000) (45, -1.01504063606262210000e+000) (46, -9.93478488922119140000e+000) (47, 1.85906906127929690000e+002) (48, -2.75285792350769040000e+000) (49, 1.75008068084716800000e+001) (7, -2.00536417961120610000e+000) (8, 3.32611393928527830000e+000) (9, -9.22157897949218750000e+001) (10, 3.93088150024414060000e+000) (11, -2.30114860534667970000e+001) (12, 6.55986785888671880000e-001) (13, -5.11339378356933590000e+001) (14, 8.81958103179931640000e+000) (15, -3.26047730445861820000e+000) (16, -2.95006927490234370000e+002) (17, 2.14658126831054690000e+001) (18, 4.19623756408691410000e+001) (19, 1.28346204757690430000e+000) (20, 3.58497357368469240000e+000) (21, 1.15352607727050780000e+002) (22, 5.64873886108398440000e+000) (23, -8.72932662963867190000e+001) (24, 2.53380107879638670000e+001) (25, 3.67466378211975100000e+000) (26, -1.74162826538085940000e+002) (27, 2.05362629890441890000e+000) (28, 1.52910137176513670000e+000) (29, 3.78417694091796870000e+002) (30, 1.24583244323730470000e+000) (31, 1.38324177265167240000e+000) (32, 1.21623435974121090000e+002) (33, 1.08356353759765620000e+002) (34, 5.29648590087890620000e+000) (35, 3.85708189010620120000e+000) (36, -1.68227508544921870000e+002) (37, 7.07607126235961910000e+000) (38, 4.24389953613281250000e+001) (39, 3.86638641357421880000e+001) (40, 1.17635357379913330000e+000) (41, 4.00075769424438480000e+000) (42, -3.92623825073242190000e+001) (43, -1.45350074768066410000e+001) (44, 8.70949506759643550000e-001) (45, -5.81663084030151370000e+000) (46, 5.30559110641479490000e+000) (47, -2.08707714080810550000e+001) (48, 1.50690805912017820000e+000) (49, -8.26845932006835940000e+001) (7, 2.00551357269287110000e+001) (8, 4.66561746597290040000e+000) (9, 9.59833049774169920000e+000) (10, 2.51659870147705080000e+000) (11, 1.84033241271972660000e+001) (12, 3.08123064041137700000e+000) (13, 1.09942646026611330000e+001) (14, -3.77918205261230470000e+001) (15, 2.82124290466308590000e+001) (16, -6.17532873153686520000e+000) (17, -1.36449417114257810000e+002) (18, -3.38420028686523440000e+001) (19, 6.48709344863891600000e+000) (20, 3.55150961875915530000e+000) (21, 2.95282697677612300000e+000) (22, -1.94397678375244140000e+001) (23, -1.14178829193115230000e+001) (24, -2.53544616699218750000e+001) (25, 4.81513881683349610000e+000) (26, 5.89597587585449220000e+001) (27, -8.23842048645019530000e+000) (28, 2.60873699188232420000e+000) (29, -5.60185194015502930000e+000) (30, 8.46373271942138670000e+000) (31, 2.34776115417480470000e+000) (32, -7.11003265380859380000e+001) (33, -1.73369636535644530000e+001) (34, -1.26655321121215820000e+001) (35, 2.63664484024047850000e+000) (36, -2.89446878433227540000e+000) (37, -7.97380268573760990000e-001) (38, 2.51426982879638670000e+001) (39, 5.21176185607910160000e+001) (40, 3.11909866333007810000e+000) (41, 2.45112729072570800000e+000) (42, 4.46599054336547850000e+000) (43, 8.96403121948242190000e+000) (44, 4.13128280639648440000e+000) (45, -1.12451934814453130000e+001) (46, -1.96759471893310550000e+001) (47, 2.40417327880859380000e+001) (48, 3.16080427169799800000e+000) (49, 3.93494873046875000000e+001) (7, -2.47157039642333980000e+001) (8, 2.45988826751708980000e+001) (9, -6.65290355682373050000e+000) (10, 1.03295230865478520000e+000) (11, 5.37117347717285160000e+001) (12, 1.26852381229400630000e+000) (13, -2.62420868873596190000e+000) (14, 9.09806060791015620000e+000) (15, -1.17764291763305660000e+001) (16, 1.47777816772460940000e+002) (17, 6.49485626220703120000e+001) (18, 1.24227876663208010000e+001) (19, 2.24218387603759770000e+001) (20, 2.09028410911560060000e+000) (21, 7.58413085937500000000e+001) (22, -1.13415403366088870000e+001) (23, 3.30402221679687500000e+001) (24, -8.07468795776367190000e+000) (25, 4.65070152282714840000e+000) (26, -8.04728698730468750000e+000) (27, 3.04223686456680300000e-001) (28, 1.25050926208496090000e+000) (29, -4.73949241638183590000e+000) (30, 5.78510522842407230000e-001) (31, 1.49434041976928710000e+000) (32, -1.04262647628784180000e+001) (33, -6.93974542617797850000e+000) (34, -1.21929430961608890000e+000) (35, 1.33656854629516600000e+001) (36, 1.44512557983398440000e+001) (37, 7.10837364196777340000e+000) (38, -4.30024032592773440000e+001) (39, -3.33081855773925780000e+001) (40, 5.34954786300659180000e-001) (41, 1.60153496265411380000e+000) (42, 5.84441757202148440000e+000) (43, 8.56068706512451170000e+000) (44, 9.99445247650146480000e+000) (45, 3.62821235656738280000e+001) (46, 3.49374341964721680000e+000) (47, -7.89246225357055660000e+000) (48, 1.14026021957397460000e+000) (49, 2.90214800834655760000e+000) (7, 6.87516098022460940000e+001) (8, 3.74598574638366700000e+000) (9, -9.73331165313720700000e+000) (10, 5.56459985673427580000e-002) (11, 1.29081420898437500000e+001) (12, 1.34381341934204100000e+000) (13, 6.70822668075561520000e+000) (14, 1.00087871551513670000e+001) (15, 1.61980743408203130000e+001) (16, -3.65701408386230470000e+001) (17, -9.28832931518554690000e+001) (18, -3.78044013977050780000e+001) (19, -2.61393904685974120000e+000) (20, 1.88491356372833250000e+000) (21, 4.44181823730468750000e+001) (22, -2.30169219970703130000e+001) (23, -7.50892829895019530000e+000) (24, 4.71147441864013670000e+000) (25, 1.32420229911804200000e+000) (26, 3.66244049072265630000e+001) (27, 3.56692276000976560000e+001) (28, 1.05959701538085940000e+000) (29, -1.43659758567810060000e+000) (30, -1.71746885776519780000e+000) (31, 1.14148914813995360000e+000) (32, -1.97379570007324220000e+001) (33, 7.87119064331054690000e+001) (34, 8.37815093994140620000e+000) (35, 6.97095203399658200000e+000) (36, 1.69564323425292970000e+001) (37, -2.45646882057189940000e+000) (38, 3.73597621917724610000e+000) (39, 4.22348556518554690000e+001) (40, -1.38608145713806150000e+000) (41, 1.21843740344047550000e-002) (42, 1.47582507133483890000e+000) (43, 2.92131280899047850000e+000) (44, -1.53012490272521970000e+000) (45, -9.21868209838867190000e+001) (46, 1.14402990341186520000e+001) (47, -9.36941242218017580000e+000) (48, -1.15391194820404050000e+000) (49, 4.48511428833007810000e+001) (7, -1.45860137939453130000e+001) (8, 1.90109753608703610000e+000) (9, 2.13923883438110350000e+000) (10, 8.99280726909637450000e-001) (11, -2.71809673309326170000e+001) (12, 8.42361599206924440000e-002) (13, 7.59635467529296880000e+001) (14, 9.06032180786132810000e+000) (15, 5.97972106933593750000e+000) (16, -8.15132751464843750000e+001) (17, 1.79782371520996090000e+001) (18, -7.78940296173095700000e+000) (19, 5.52376449108123780000e-001) (20, 1.21757388114929200000e+000) (21, -1.00930423736572270000e+001) (22, 1.81940326690673830000e+001) (23, -2.96381244659423830000e+001) (24, -4.57032356262207030000e+001) (25, 8.72178196907043460000e-001) (26, 1.70070552825927730000e+001) (27, 6.67970037460327150000e+000) (28, 1.28562295436859130000e+000) (29, -2.84410724639892580000e+001) (30, 5.82101345062255860000e-001) (31, 9.94572997093200680000e-001) (32, 1.52550239562988280000e+001) (33, 3.27747993469238280000e+001) (34, 6.95915222167968750000e+000) (35, 7.69383132457733150000e-001) (36, 8.62590312957763670000e+000) (37, -6.50873851776123050000e+000) (38, 2.97962117195129390000e+000) (39, -3.67009329795837400000e+000) (40, 8.23233351111412050000e-002) (41, 7.40442276000976560000e-001) (42, 3.33212471008300780000e+000) (43, 5.79487037658691410000e+001) (44, 1.68525740504264830000e-001) (45, -7.29417943954467770000e+000) (46, 2.03911933898925780000e+001) (47, 2.11295819282531740000e+000) (48, 5.29165446758270260000e-001) (49, 1.61117994785308840000e+000) 
