FANN_FLO_2.1
num_layers=3
learning_rate=0.700000
connection_rate=1.000000
network_type=0
learning_momentum=0.000000
training_algorithm=2
train_error_function=1
train_stop_function=0
cascade_output_change_fraction=0.010000
quickprop_decay=-0.000100
quickprop_mu=1.750000
rprop_increase_factor=1.200000
rprop_decrease_factor=0.500000
rprop_delta_min=0.000000
rprop_delta_max=50.000000
rprop_delta_zero=0.100000
cascade_output_stagnation_epochs=12
cascade_candidate_change_fraction=0.010000
cascade_candidate_stagnation_epochs=12
cascade_max_out_epochs=150
cascade_min_out_epochs=50
cascade_max_cand_epochs=150
cascade_min_cand_epochs=50
cascade_num_candidate_groups=2
bit_fail_limit=3.49999994039535520000e-001
cascade_candidate_limit=1.00000000000000000000e+003
cascade_weight_multiplier=4.00000005960464480000e-001
cascade_activation_functions_count=10
cascade_activation_functions=3 5 7 8 10 11 14 15 16 17 
cascade_activation_steepnesses_count=4
cascade_activation_steepnesses=2.50000000000000000000e-001 5.00000000000000000000e-001 7.50000000000000000000e-001 1.00000000000000000000e+000 
layer_sizes=7 50 8 
scale_included=0
neurons (num_inputs, activation_function, activation_steepness)=(0, 0, 0.00000000000000000000e+000) (0, 0, 0.00000000000000000000e+000) (0, 0, 0.00000000000000000000e+000) (0, 0, 0.00000000000000000000e+000) (0, 0, 0.00000000000000000000e+000) (0, 0, 0.00000000000000000000e+000) (0, 0, 0.00000000000000000000e+000) (7, 5, 9.99999977648258210000e-003) (7, 5, 9.99999977648258210000e-003) (7, 5, 9.99999977648258210000e-003) (7, 5, 9.99999977648258210000e-003) (7, 5, 9.99999977648258210000e-003) (7, 5, 9.99999977648258210000e-003) (7, 5, 9.99999977648258210000e-003) (7, 5, 9.99999977648258210000e-003) (7, 5, 9.99999977648258210000e-003) (7, 5, 9.99999977648258210000e-003) (7, 5, 9.99999977648258210000e-003) (7, 5, 9.99999977648258210000e-003) (7, 5, 9.99999977648258210000e-003) (7, 5, 9.99999977648258210000e-003) (7, 5, 9.99999977648258210000e-003) (7, 5, 9.99999977648258210000e-003) (7, 5, 9.99999977648258210000e-003) (7, 5, 9.99999977648258210000e-003) (7, 5, 9.99999977648258210000e-003) (7, 5, 9.99999977648258210000e-003) (7, 5, 9.99999977648258210000e-003) (7, 5, 9.99999977648258210000e-003) (7, 5, 9.99999977648258210000e-003) (7, 5, 9.99999977648258210000e-003) (7, 5, 9.99999977648258210000e-003) (7, 5, 9.99999977648258210000e-003) (7, 5, 9.99999977648258210000e-003) (7, 5, 9.99999977648258210000e-003) (7, 5, 9.99999977648258210000e-003) (7, 5, 9.99999977648258210000e-003) (7, 5, 9.99999977648258210000e-003) (7, 5, 9.99999977648258210000e-003) (7, 5, 9.99999977648258210000e-003) (7, 5, 9.99999977648258210000e-003) (7, 5, 9.99999977648258210000e-003) (7, 5, 9.99999977648258210000e-003) (7, 5, 9.99999977648258210000e-003) (7, 5, 9.99999977648258210000e-003) (7, 5, 9.99999977648258210000e-003) (7, 5, 9.99999977648258210000e-003) (7, 5, 9.99999977648258210000e-003) (7, 5, 9.99999977648258210000e-003) (7, 5, 9.99999977648258210000e-003) (7, 5, 9.99999977648258210000e-003) (7, 5, 9.99999977648258210000e-003) (7, 5, 9.99999977648258210000e-003) (7, 5, 9.99999977648258210000e-003) (7, 5, 9.99999977648258210000e-003) (7, 5, 9.99999977648258210000e-003) (0, 0, 0.00000000000000000000e+000) (50, 5, 9.99999977648258210000e-003) (50, 5, 9.99999977648258210000e-003) (50, 5, 9.99999977648258210000e-003) (50, 5, 9.99999977648258210000e-003) (50, 5, 9.99999977648258210000e-003) (50, 5, 9.99999977648258210000e-003) (50, 5, 9.99999977648258210000e-003) (0, 0, 0.00000000000000000000e+000) 
connections (connected_to_neuron, weight)=(0, -6.62629246711730960000e-001) (1, -2.93076062202453610000e+000) (2, 2.71168670654296870000e+002) (3, 8.50498580932617190000e+001) (4, -1.16459907531738280000e+002) (5, 1.26507789611816410000e+002) (6, -1.40210372924804690000e+002) (0, 1.63735747337341310000e+000) (1, -3.08043193817138670000e+000) (2, 3.92016143798828120000e+002) (3, -5.75734519958496090000e+000) (4, 8.41236209869384770000e+000) (5, 5.20892429351806640000e+000) (6, -2.64394207000732420000e+001) (0, 5.66660702228546140000e-001) (1, 8.65035295486450200000e-001) (2, 1.51463302612304690000e+002) (3, 7.74301862716674800000e+000) (4, -6.35195503234863280000e+001) (5, 5.76688671112060550000e+000) (6, -4.76756334304809570000e-001) (0, 6.46073877811431880000e-001) (1, -6.65979385375976560000e-001) (2, 8.70941936969757080000e-001) (3, -5.97026586532592770000e+000) (4, -8.69860744476318360000e+000) (5, 9.05267119407653810000e-001) (6, -2.47979350388050080000e-002) (0, 1.60510766506195070000e+000) (1, -1.28796195983886720000e+001) (2, -4.94418106079101560000e+001) (3, -5.60861492156982420000e+000) (4, 1.70283164978027340000e+001) (5, 5.77260637283325200000e+000) (6, -1.42933845520019530000e+000) (0, 4.44683849811553960000e-001) (1, 3.99962306022644040000e-001) (2, -2.27245545387268070000e+000) (3, 7.22455024719238280000e-001) (4, -1.43739385604858400000e+001) (5, 2.28657894134521480000e+001) (6, -1.13566972315311430000e-001) (0, 6.52675330638885500000e-001) (1, -1.16943397521972660000e+002) (2, -2.72652530670166020000e+001) (3, 1.78965020179748540000e+000) (4, -4.20770202636718750000e+002) (5, 2.18113647460937500000e+002) (6, -6.19940578937530520000e-001) (0, 9.73433315753936770000e-001) (1, -1.54651033878326420000e+000) (2, -1.50821075439453130000e+001) (3, 9.32409286499023440000e-001) (4, 1.90424118041992190000e+001) (5, 5.24797439575195310000e-001) (6, -2.36417263746261600000e-001) (0, 2.69976317882537840000e-001) (1, -2.33660292625427250000e+000) (2, -4.82204246520996090000e+001) (3, 7.96263074874877930000e+000) (4, 1.54214200973510740000e+001) (5, 3.63157320022583010000e+000) (6, -1.23263740539550780000e+000) (0, 8.69580090045928960000e-001) (1, 2.52391338348388670000e+000) (2, 2.27379180908203120000e+002) (3, 7.19188594818115230000e+000) (4, 1.55390882492065430000e+001) (5, -1.02828910827636720000e+002) (6, 4.18963527679443360000e+000) (0, 1.59085083007812500000e+000) (1, 4.90600347518920900000e+000) (2, -5.81314697265625000000e+001) (3, -1.50772848129272460000e+001) (4, 2.11336326599121090000e+001) (5, 2.32150888442993160000e+000) (6, 9.31870937347412110000e+000) (0, 6.77731215953826900000e-001) (1, 3.47833991050720210000e-001) (2, -1.97398624420166020000e+001) (3, -3.80379219055175780000e+001) (4, -7.08252859115600590000e+000) (5, -1.51449248194694520000e-001) (6, 4.78559255599975590000e-001) (0, 4.47246313095092770000e+000) (1, -7.12179601192474370000e-001) (2, 2.57260646820068360000e+001) (3, -4.35754119873046870000e+002) (4, 1.24942913055419920000e+001) (5, 9.60982894897460940000e+001) (6, 5.99000930786132810000e+000) (0, -7.96292603015899660000e-001) (1, -8.21280598640441890000e-001) (2, -1.64140176773071290000e+000) (3, 2.64138717651367190000e+001) (4, -1.43148577213287350000e+000) (5, -1.06783714294433590000e+001) (6, 3.87041068077087400000e+000) (0, -4.15594935417175290000e-001) (1, 1.54133462905883790000e+000) (2, 3.17562651634216310000e+000) (3, -3.17556285858154300000e+001) (4, -1.87681722640991210000e+000) (5, -5.01206636428833010000e+000) (6, 1.75652956962585450000e+000) (0, -5.90846896171569820000e-001) (1, -4.01973390579223630000e+000) (2, 3.82752655029296870000e+002) (3, -4.38121719360351560000e+001) (4, -5.28696899414062500000e+002) (5, -6.26907396316528320000e+000) (6, 7.47791242599487300000e+000) (0, 8.03689897060394290000e-001) (1, 8.42312932014465330000e-001) (2, 1.62793655395507810000e+001) (3, -3.36694121360778810000e+000) (4, -6.87401711940765380000e-001) (5, 3.91984522342681880000e-001) (6, -1.70019924640655520000e-001) (0, 6.82418048381805420000e-001) (1, -1.06878710937500000000e+003) (2, 1.50000000000000000000e+003) (3, 1.23099072265625000000e+003) (4, 3.38444976806640620000e+002) (5, 1.13064170837402340000e+002) (6, -8.67271900177001950000e-001) (0, -6.52298629283905030000e-001) (1, -5.47023963928222660000e+000) (2, 5.96160583496093750000e+001) (3, -2.12969570159912110000e+001) (4, -2.52128601074218750000e+001) (5, -2.13067932128906250000e+001) (6, 9.99447784423828130000e+001) (0, 2.02777099609375000000e+000) (1, -2.52885580062866210000e+000) (2, 1.25236175537109370000e+002) (3, -2.85763061523437500000e+002) (4, -2.45672035217285160000e+001) (5, 7.06299285888671880000e+001) (6, -1.08677406311035160000e+001) (0, -8.12907695770263670000e-001) (1, 2.44000881910324100000e-001) (2, -3.28719758987426760000e+000) (3, 2.90914058685302730000e+001) (4, -7.93761634826660160000e+000) (5, -1.16071825027465820000e+001) (6, 1.04666233062744140000e+001) (0, 9.13125872611999510000e-001) (1, 1.02612233161926270000e+000) (2, -5.16150665283203120000e+000) (3, 1.04007005691528320000e+000) (4, 1.28298187255859370000e+000) (5, 2.47569704055786130000e+000) (6, -5.97070038318634030000e-001) (0, -1.26812350749969480000e+000) (1, 2.02971577644348140000e+000) (2, 1.37125864028930660000e+001) (3, 3.59477172851562500000e+002) (4, 5.44317770004272460000e+000) (5, -3.70411682128906250000e+001) (6, -4.74427080154418950000e+000) (0, 1.56363356113433840000e+000) (1, 5.46811723709106450000e+000) (2, 5.17800720214843750000e+002) (3, 5.37193679809570310000e+000) (4, 6.37494262695312500000e+002) (5, 2.69114303588867190000e+000) (6, -6.97588348388671870000e+000) (0, 1.79429745674133300000e+000) (1, -3.83146071434021000000e+000) (2, 1.49701342773437500000e+003) (3, -1.32514171600341800000e+001) (4, 1.44837020874023440000e+002) (5, 4.00621032714843750000e+000) (6, -4.33856544494628910000e+001) (0, 9.26678657531738280000e-001) (1, 9.31454837322235110000e-001) (2, -1.27245044708251950000e+001) (3, 2.60222673416137700000e+000) (4, 1.00682175159454350000e+000) (5, 3.38257670402526860000e+000) (6, -4.60265666246414180000e-001) (0, 5.17774581909179690000e-001) (1, -5.13167333602905270000e+000) (2, 6.29973888397216800000e+000) (3, 2.94018125534057620000e+000) (4, 5.61680972576141360000e-001) (5, 6.45727777481079100000e+000) (6, -3.21784801781177520000e-002) (0, 4.54306542873382570000e-001) (1, 2.41184249520301820000e-001) (2, 6.02068519592285160000e+000) (3, -4.06125717163085940000e+001) (4, -1.59346554428339000000e-002) (5, 1.66716623306274410000e+000) (6, 3.76266646385192870000e+000) (0, 4.93994086980819700000e-001) (1, 7.02531719207763670000e+000) (2, -6.17945623397827150000e+000) (3, -3.13257923126220700000e+001) (4, -4.27156984806060790000e-001) (5, 3.75523996353149410000e+000) (6, 3.35509252548217770000e+000) (0, -7.77876079082489010000e-001) (1, -1.21764624118804930000e+000) (2, 8.23650550842285160000e+000) (3, 2.54561271667480470000e+001) (4, 4.45442342758178710000e+000) (5, -1.25830907821655270000e+001) (6, 1.47081356048583980000e+001) (0, 5.46187758445739750000e-001) (1, -1.87698001861572270000e+001) (2, 1.08104047775268550000e+001) (3, 3.48249855041503910000e+001) (4, 2.47433910369873050000e+001) (5, 3.69674921035766600000e+000) (6, -2.91822701692581180000e-001) (0, -6.68010234832763670000e-001) (1, -1.14752769470214840000e-001) (2, 8.18505382537841800000e+000) (3, 6.09080276489257810000e+001) (4, -8.88613522052764890000e-001) (5, -1.03093109130859370000e+001) (6, 1.43093490600585940000e+001) (0, 1.06825697422027590000e+000) (1, 1.90215774536132810000e+002) (2, 1.50000000000000000000e+003) (3, 1.45496606826782230000e+001) (4, 3.86856727600097660000e+001) (5, 2.35977668762207030000e+001) (6, -4.08884277343750000000e+001) (0, 1.81602811813354490000e+000) (1, 1.00472867488861080000e+000) (2, 1.49136917114257810000e+002) (3, -1.16637325286865230000e+001) (4, 2.37840995788574220000e+001) (5, 1.13794832229614260000e+001) (6, -2.06650185585021970000e+000) (0, 1.69197249412536620000e+000) (1, 6.45755958557128910000e+000) (2, -6.29858970642089840000e+001) (3, -1.47371082305908200000e+001) (4, 1.71539134979248050000e+001) (5, 2.80701971054077150000e+000) (6, 6.30804181098937990000e-001) (0, 5.96527159214019780000e-001) (1, -2.31708794832229610000e-001) (2, 7.92368555068969730000e+000) (3, 4.12128067016601560000e+000) (4, 1.04897642135620120000e+001) (5, 4.39077377319335940000e+000) (6, -4.27375614643096920000e-001) (0, 5.85671365261077880000e-001) (1, 6.95066273212432860000e-001) (2, 7.92082881927490230000e+000) (3, 1.96389770507812500000e+000) (4, 2.48717927932739260000e+000) (5, 4.49543285369873050000e+000) (6, -3.10545742511749270000e-001) (0, 5.04934847354888920000e-001) (1, -1.73208624124526980000e-001) (2, 1.01264667510986330000e+001) (3, 1.51166331768035890000e+000) (4, 1.94573938846588130000e+000) (5, 4.15962553024291990000e+000) (6, -5.30951380729675290000e-001) (0, 6.99961543083190920000e-001) (1, -3.91553878784179690000e+000) (2, 1.02653951644897460000e+001) (3, 2.11909866333007810000e+000) (4, 6.04403686523437500000e+001) (5, 1.46258438110351560000e+002) (6, -1.58271423339843750000e+002) (0, 1.67250192165374760000e+000) (1, -4.27380142211914060000e+001) (2, 1.01803085327148440000e+002) (3, -9.67100620269775390000e+000) (4, -2.07503986358642580000e+001) (5, 3.43650555610656740000e+000) (6, 1.88523959368467330000e-002) (0, 9.14021873474121090000e+000) (1, 6.60919094085693360000e+000) (2, -5.34887924194335940000e+001) (3, -2.87178283691406250000e+002) (4, 2.88028076171875000000e+002) (5, 1.49322974681854250000e+000) (6, -6.02304382324218750000e+001) (0, -1.21162712574005130000e-001) (1, 2.60240001678466800000e+001) (2, 5.08221664428710940000e+001) (3, -5.69635429382324220000e+001) (4, -7.63808631896972660000e+000) (5, -3.39644575119018550000e+000) (6, 4.40759544372558590000e+001) (0, -3.98755401372909550000e-001) (1, -1.01401257514953610000e+000) (2, 1.94110298156738280000e+001) (3, -3.10188083648681640000e+001) (4, -5.04369401931762700000e+000) (5, -5.17390871047973630000e+000) (6, 1.78550326824188230000e+000) (0, 1.59059476852416990000e+000) (1, -8.58067226409912110000e+000) (2, -2.58490066528320310000e+001) (3, -5.60500335693359370000e+000) (4, 1.99543113708496090000e+001) (5, 2.60792469978332520000e+000) (6, -4.59894686937332150000e-001) (0, -7.80082583427429200000e-001) (1, 8.45470070838928220000e-001) (2, -2.15680217742919920000e+000) (3, 2.86585960388183590000e+001) (4, -8.50979232788085940000e+000) (5, -1.16823606491088870000e+001) (6, 1.10770053863525390000e+001) (0, 1.70910453796386720000e+000) (1, 3.64006131887435910000e-001) (2, 2.63322082519531250000e+002) (3, -5.99674844741821290000e+000) (4, 6.44294052124023440000e+001) (5, 4.71497774124145510000e+000) (6, -4.52390136718750000000e+001) (0, -8.38834226131439210000e-001) (1, 1.45174574851989750000e+000) (2, 1.24357116222381590000e+000) (3, 5.47003822326660160000e+001) (4, 1.34686470031738280000e+001) (5, -1.07549610137939450000e+001) (6, 2.98091363906860350000e+000) (0, 9.48367416858673100000e-001) (1, 1.32056844234466550000e+000) (2, -1.24010362625122070000e+001) (3, 1.35275554656982420000e+000) (4, 1.41004502773284910000e+000) (5, 2.59259748458862300000e+000) (6, -4.90636318922042850000e-001) (0, 3.41766667366027830000e+000) (1, 1.72647686004638670000e+001) (2, 2.00907638549804690000e+002) (3, -4.68211250305175780000e+001) (4, -4.33499679565429690000e+001) (5, -1.43721663951873780000e+000) (6, -1.48536195755004880000e+001) (7, -1.64982849121093750000e+002) (8, 2.10593843460083010000e+000) (9, -9.01030731201171870000e+000) (10, 3.18129425048828130000e+001) (11, 3.61612963676452640000e+000) (12, 2.94260531663894650000e-001) (13, -3.93954627215862270000e-002) (14, 1.91176223754882810000e+000) (15, -4.62842273712158200000e+000) (16, 3.44581627845764160000e+000) (17, 2.84877133369445800000e+000) (18, 3.04071807861328130000e+001) (19, 5.57266502380371090000e+001) (20, 3.72261452674865720000e+000) (21, 5.50572061538696290000e+000) (22, 2.18434200286865230000e+001) (23, 3.23711252212524410000e+000) (24, 2.07866120338439940000e+000) (25, 2.48825473785400390000e+001) (26, 2.16557693481445310000e+001) (27, 4.37835121154785160000e+000) (28, 2.66097784042358400000e+000) (29, 1.82473583221435550000e+001) (30, 2.32221579551696780000e+000) (31, 4.10998153686523440000e+000) (32, 1.91343188285827640000e+000) (33, 7.44281932711601260000e-002) (34, 4.39619674682617190000e+001) (35, 8.03720057010650630000e-001) (36, -2.65869083404541020000e+001) (37, -3.19197364151477810000e-002) (38, 9.89354705810546880000e+001) (39, -9.12995994091033940000e-001) (40, 8.04835319519042970000e-001) (41, 4.49049663543701170000e+000) (42, -1.19375634193420410000e+000) (43, -1.05516266822814940000e+000) (44, -1.72860071063041690000e-001) (45, -3.74243812561035160000e+001) (46, 2.15098023414611820000e+000) (47, 2.91296157836914060000e+001) (48, 9.60457420349121090000e+000) (49, 9.07617282867431640000e+000) (50, 4.26088714599609380000e+000) (51, 4.41411638259887700000e+000) (52, 2.45424389839172360000e+000) (53, -5.96851043701171880000e+001) (54, 2.40853023529052730000e+000) (55, 3.13571643829345700000e+000) (56, 9.21232528686523440000e+001) (7, 4.12762985229492190000e+001) (8, -3.34723663330078120000e+000) (9, -4.81590232849121090000e+001) (10, -2.91716644287109370000e+002) (11, 4.81613993644714360000e-001) (12, 5.89154422283172610000e-001) (13, 1.13302717208862300000e+001) (14, -7.25542259216308590000e+000) (15, 4.77965545654296870000e+000) (16, -3.67888565063476560000e+001) (17, 7.96208083629608150000e-001) (18, 1.55124374389648440000e+002) (19, 2.05373430252075200000e+000) (20, 1.66034948825836180000e+000) (21, 4.82987327575683590000e+001) (22, -3.63283824920654300000e+000) (23, -2.70430145263671870000e+001) (24, -1.08264274597167970000e+001) (25, 9.84814529418945310000e+001) (26, -4.14338607788085940000e+001) (27, 3.88101911544799800000e+000) (28, -2.05906791687011720000e+001) (29, -7.58614397048950200000e+000) (30, -3.67083168029785160000e+001) (31, -3.16455984115600590000e+000) (32, -6.79099178314208980000e+000) (33, -2.58535957336425780000e+000) (34, 4.30449981689453120000e+002) (35, 7.16255426406860350000e-001) (36, 3.32474395751953120000e+002) (37, -1.44399633407592770000e+001) (38, 6.04452180862426760000e+000) (39, -7.95587110519409180000e+000) (40, -2.43506813049316410000e+000) (41, 7.59885668754577640000e-001) (42, -1.45248498916625980000e+001) (43, -2.93158340454101560000e+000) (44, -1.50609474182128910000e+001) (45, 2.48484191894531250000e+002) (46, -1.30497670173645020000e+000) (47, -2.58586769104003910000e+001) (48, 2.17773056030273440000e+001) (49, 1.42083282470703130000e+001) (50, 5.40598750114440920000e-001) (51, 4.39580440521240230000e+000) (52, -3.56729674339294430000e+000) (53, 2.66312885284423830000e+000) (54, -8.07551288604736330000e+000) (55, -2.51553535461425780000e+000) (56, 2.98108806610107420000e+001) (7, 3.26877174377441410000e+001) (8, 2.60578036308288570000e+000) (9, 1.28551340103149410000e+000) (10, -4.48932838439941410000e+000) (11, 2.38948893547058110000e+000) (12, 1.25950467586517330000e+000) (13, 1.75959987640380860000e+001) (14, 1.54307377338409420000e+000) (15, 6.15868759155273440000e+001) (16, -2.68622436523437500000e+001) (17, 1.82212889194488530000e+000) (18, -3.07606994628906250000e+002) (19, 1.50992479324340820000e+001) (20, -5.97515678405761720000e+000) (21, -1.06148490905761720000e+001) (22, -1.40577402114868160000e+001) (23, -1.94785147905349730000e-001) (24, 2.63874340057373050000e+000) (25, -1.48672607421875000000e+002) (26, 5.40671043395996090000e+001) (27, -8.85403156280517580000e+000) (28, 2.69376254081726070000e+000) (29, 1.51632354736328120000e+002) (30, 9.52173709869384770000e-001) (31, 2.26587867736816410000e+000) (32, 2.56069636344909670000e+000) (33, 4.65973711013793950000e+000) (34, -9.89785308837890630000e+001) (35, -7.27889537811279300000e-001) (36, -2.09655807495117190000e+002) (37, 2.11126708984375000000e+000) (38, -6.16102294921875000000e+001) (39, 1.21661150455474850000e+000) (40, 2.53404092788696290000e+000) (41, 2.30457186698913570000e+000) (42, 2.14685177803039550000e+000) (43, 3.02558827400207520000e+000) (44, 3.88485622406005860000e+000) (45, -1.91954437255859370000e+002) (46, 2.65166258811950680000e+000) (47, 6.67754516601562500000e+001) (48, -2.99231872558593750000e+001) (49, -1.05711669921875000000e+001) (50, 2.03787231445312500000e+000) (51, -1.02615823745727540000e+001) (52, 2.73806643486022950000e+000) (53, -1.20440740585327150000e+001) (54, 2.77874898910522460000e+000) (55, 2.51694607734680180000e+000) (56, -7.58922042846679690000e+001) (7, 7.72657346725463870000e+000) (8, 2.74971246719360350000e+000) (9, 1.09615840911865230000e+001) (10, 1.75161933898925780000e+001) (11, 2.34822583198547360000e+000) (12, 1.08183836936950680000e+000) (13, 1.99790692329406740000e+000) (14, 1.84110307693481450000e+000) (15, 1.10146913528442380000e+001) (16, -6.00762605667114260000e-001) (17, 2.76013016700744630000e+000) (18, 2.62505412101745610000e+000) (19, -4.75302619934082030000e+001) (20, -1.46079835891723630000e+001) (21, -1.22056369781494140000e+001) (22, -1.67947063446044920000e+001) (23, 1.20990967750549320000e+000) (24, 5.86940467357635500000e-001) (25, 2.96919882297515870000e-001) (26, -1.94519290924072270000e+001) (27, -1.28772172927856450000e+001) (28, 2.63259315490722660000e+000) (29, -9.46958618164062500000e+001) (30, 6.69784784317016600000e+000) (31, 1.63084735870361330000e+001) (32, 2.79600143432617190000e+000) (33, 2.30184626579284670000e+000) (34, 3.53727081298828120000e+002) (35, 5.78039836883544920000e+000) (36, -6.45168304443359380000e+001) (37, 1.07507019042968750000e+001) (38, 4.09907417297363280000e+001) (39, 6.58222436904907230000e+000) (40, 3.33067488670349120000e+000) (41, 3.93280935287475590000e+000) (42, 4.79476213455200200000e+000) (43, 7.18275403976440430000e+000) (44, 4.60178852081298830000e+000) (45, 8.80146884918212890000e+000) (46, 4.51348495483398440000e+000) (47, -3.33254623413085940000e+001) (48, 6.07620000839233400000e+000) (49, -1.15425043106079100000e+001) (50, 2.74386119842529300000e+000) (51, -2.12000904083251950000e+001) (52, 3.06266999244689940000e+000) (53, -4.60235824584960940000e+001) (54, 2.84163498878479000000e+000) (55, 2.78674030303955080000e+000) (56, 1.61826477050781250000e+001) (7, 4.82431869506835940000e+001) (8, 2.57415199279785160000e+000) (9, 1.83729791641235350000e+000) (10, 2.95844058990478520000e+001) (11, -4.87318783998489380000e-001) (12, -1.61646068096160890000e+000) (13, -4.05010879039764400000e-001) (14, 7.33809995651245120000e+000) (15, 4.41498069763183590000e+001) (16, 8.91165847778320310000e+001) (17, -3.95841896533966060000e-001) (18, 1.11662193298339840000e+002) (19, -1.31481094360351560000e+001) (20, 6.72050952911376950000e+000) (21, 1.15028448104858400000e+001) (22, -1.01579589843750000000e+001) (23, -4.02949631214141850000e-001) (24, 1.63674211502075200000e+000) (25, 3.12009887695312500000e+001) (26, 4.61881637573242190000e+000) (27, 7.05779647827148440000e+000) (28, -1.09446620941162110000e+000) (29, -1.45731008052825930000e+000) (30, 7.08156749606132510000e-002) (31, 2.12729692459106450000e+000) (32, -1.04938900470733640000e+000) (33, -1.38630342483520510000e+000) (34, -9.24846076965332030000e+000) (35, 1.15602362155914310000e+000) (36, 7.98982286453247070000e+000) (37, 2.88759320974349980000e-001) (38, 7.21209640502929690000e+001) (39, 4.05297660827636720000e+000) (40, 1.07864255905151370000e+001) (41, -5.42619943618774410000e-001) (42, -8.09771358966827390000e-001) (43, -9.35325264930725100000e-001) (44, 2.65749424695968630000e-001) (45, -5.91236092150211330000e-002) (46, 1.43291294574737550000e+000) (47, 2.99419212341308590000e+001) (48, 8.69489014148712160000e-002) (49, 1.13567266464233400000e+001) (50, -6.15711271762847900000e-001) (51, 7.55059480667114260000e+000) (52, 1.77407693862915040000e+000) (53, 1.22408759593963620000e+000) (54, -1.07289373874664310000e+000) (55, 9.43494224548339840000e+000) (56, 1.43924188613891600000e+001) (7, -4.19133806228637700000e+000) (8, -1.50465941429138180000e+000) (9, 9.11025238037109370000e+000) (10, -2.08619624376297000000e-001) (11, 2.35363316535949710000e+000) (12, 4.56155776977539060000e+000) (13, 1.48692293167114260000e+001) (14, -4.10589075088500980000e+000) (15, 6.11986808776855470000e+001) (16, -9.17212677001953120000e+000) (17, 9.71406251192092900000e-002) (18, -1.03325302124023440000e+002) (19, -1.34979751586914060000e+002) (20, 9.14163589477539060000e+000) (21, -1.20090436935424800000e+000) (22, -1.77394676208496090000e+001) (23, -2.61956211179494860000e-002) (24, 1.05864250659942630000e+000) (25, -4.91605186462402340000e+000) (26, -9.89335632324218750000e+000) (27, 5.57749223709106450000e+000) (28, 7.65682309865951540000e-002) (29, -2.02612137794494630000e+000) (30, -3.39962267875671390000e+000) (31, 7.15600490570068360000e-001) (32, 7.48777315020561220000e-002) (33, 3.05285066366195680000e-001) (34, 2.43216152191162110000e+001) (35, -1.52627192437648770000e-002) (36, -1.23832008361816410000e+002) (37, 2.51185989379882810000e+000) (38, 6.59705781936645510000e+000) (39, 2.65956306457519530000e+000) (40, -2.24039101600646970000e+000) (41, -2.31604203581810000000e-001) (42, -7.07589238882064820000e-002) (43, -1.05602867901325230000e-001) (44, 8.50918237119913100000e-003) (45, -4.80882406234741210000e+000) (46, -2.01760029792785640000e+000) (47, -1.16735486984252930000e+001) (48, 4.16111135482788090000e+000) (49, -1.36027371883392330000e+000) (50, 2.22707843780517580000e+000) (51, 5.88138723373413090000e+000) (52, -1.08083629608154300000e+000) (53, -4.34102363586425780000e+001) (54, -2.52181887626647950000e-002) (55, -3.99360466003417970000e+000) (56, 4.66572685241699220000e+001) (7, -1.01817016601562500000e+001) (8, 2.76251482963562010000e+000) (9, -3.56460380554199220000e+000) (10, 2.37408180236816410000e+001) (11, -4.46315956115722660000e+000) (12, 9.99867498874664310000e-001) (13, 3.42726945877075200000e+000) (14, -2.02658012509346010000e-001) (15, 1.50326633453369140000e+000) (16, -4.81759023666381840000e+000) (17, -6.02775955200195310000e+000) (18, 5.58558654785156250000e+000) (19, -6.54224777221679690000e+000) (20, 3.90472483634948730000e+000) (21, 3.04141330718994140000e+000) (22, 9.50020446777343750000e+001) (23, -8.94499123096466060000e-002) (24, 1.40558016300201420000e+000) (25, -2.58518123626708980000e+000) (26, 7.81725406646728520000e+000) (27, 2.16189217567443850000e+000) (28, -7.67187833786010740000e-001) (29, 3.86678171157836910000e+000) (30, 7.99722747802734370000e+001) (31, 1.47822895050048830000e+001) (32, -7.96478867530822750000e-001) (33, -1.47042378783226010000e-001) (34, -1.44501190185546880000e+001) (35, -3.51451694965362550000e-001) (36, -5.06223535537719730000e+000) (37, 3.78816515207290650000e-001) (38, 4.95023298263549800000e+000) (39, 4.44147300720214840000e+000) (40, 1.91247785091400150000e+000) (41, -4.76857995986938480000e+000) (42, 8.35594534873962400000e-002) (43, -2.72425621747970580000e-001) (44, 4.37183558940887450000e-001) (45, 1.18173074722290040000e+001) (46, 9.52889800071716310000e-001) (47, -9.78018856048583980000e+000) (48, 2.65016257762908940000e-001) (49, 3.24188470840454100000e+000) (50, -4.41669654846191410000e+000) (51, 2.19861459732055660000e+000) (52, 2.92108011245727540000e+000) (53, 3.30183267593383790000e+000) (54, -9.13209438323974610000e-001) (55, 1.76399171352386470000e+000) (56, 2.70087838172912600000e+000) 
